{
    "epoch1": {
        "rightWeight": [
            [
                0.0983,
                0.017,
                -0.1012
            ],
            [
                -0.0552,
                -0.0795,
                0.1303
            ],
            [
                0.101,
                -0.1657,
                0.0718
            ],
            [
                -0.0488,
                -0.1083,
                0.0489
            ]
        ],
        "leftWeight": [
            [
                0.4215,
                -0.4463,
                0.5576
            ],
            [
                -0.4636,
                -0.2554,
                -0.5667
            ],
            [
                -0.1923,
                -0.5148,
                -0.0858
            ],
            [
                -0.1349,
                -0.0327,
                -0.128
            ],
            [
                -0.3812,
                0.3955,
                -0.1916
            ],
            [
                -0.214,
                0.0371,
                -0.1126
            ],
            [
                0.0518,
                0.2925,
                -0.484
            ],
            [
                -0.2848,
                0.1629,
                -0.0263
            ]
        ],
        "leftBias": [
            [
                0.5538,
                0.4938,
                0.0618,
                -0.0985,
                0.1509,
                -0.0063,
                -0.2634,
                -0.456
            ],
            []
        ],
        "modelOut": [
            [
                0.5312,
                0.5013,
                0.0428,
                -0.0994,
                0.1396,
                -0.0154,
                -0.2043,
                -0.4785
            ],
            [
                0.6386,
                0.4659,
                0.1022,
                -0.1052,
                0.1156,
                -0.0122,
                -0.3525,
                -0.4566
            ],
            [
                0.7103,
                0.4487,
                0.1216,
                -0.1159,
                0.0331,
                -0.0422,
                -0.3413,
                -0.5136
            ],
            [
                0.6088,
                0.5164,
                0.1228,
                -0.0947,
                0.1174,
                -0.0054,
                -0.3212,
                -0.461
            ],
            []
        ],
        "log_probs": [
            [
                -1.6515,
                -1.6815,
                -2.1399,
                -2.2821,
                -2.0431,
                -2.1981,
                -2.387,
                -2.6612
            ],
            [
                -1.5521,
                -1.7248,
                -2.0886,
                -2.2959,
                -2.0752,
                -2.2029,
                -2.5433,
                -2.6474
            ],
            [
                -1.4782,
                -1.7399,
                -2.067,
                -2.3045,
                -2.1554,
                -2.2307,
                -2.5299,
                -2.7022
            ],
            [
                -1.5917,
                -1.6841,
                -2.0777,
                -2.2952,
                -2.0831,
                -2.2059,
                -2.5217,
                -2.6615
            ],
            []
        ],
        "y_pred": [
            [
                -1.6515,
                -1.6815,
                -2.1399,
                -2.2821,
                -2.0431,
                -2.1981,
                -2.387,
                -2.6612
            ],
            [
                -1.5521,
                -1.7248,
                -2.0886,
                -2.2959,
                -2.0752,
                -2.2029,
                -2.5433,
                -2.6474
            ],
            [
                -1.4782,
                -1.7399,
                -2.067,
                -2.3045,
                -2.1554,
                -2.2307,
                -2.5299,
                -2.7022
            ],
            [
                -1.5917,
                -1.6841,
                -2.0777,
                -2.2952,
                -2.0831,
                -2.2059,
                -2.5217,
                -2.6615
            ],
            []
        ],
        "loss": [
            [
                2.207
            ]
        ]
    },
    "epoch2": {
        "rightWeight": [
            [
                0.0767,
                0.0232,
                -0.0504
            ],
            [
                0.0973,
                0.016,
                -0.1002
            ],
            [
                0.0763,
                0.1114,
                -0.0824
            ],
            [
                0.1,
                -0.1647,
                0.0708
            ]
        ],
        "leftWeight": [
            [
                0.4205,
                -0.4453,
                0.5566
            ],
            [
                -0.4646,
                -0.2544,
                -0.5677
            ],
            [
                -0.1913,
                -0.5158,
                -0.0848
            ],
            [
                -0.1339,
                -0.0337,
                -0.127
            ],
            [
                -0.3822,
                0.3965,
                -0.1926
            ],
            [
                -0.215,
                0.0381,
                -0.1136
            ],
            [
                0.0508,
                0.2935,
                -0.485
            ],
            [
                -0.2858,
                0.1639,
                -0.0273
            ]
        ],
        "leftBias": [
            [
                0.5528,
                0.4928,
                0.0628,
                -0.0975,
                0.1499,
                -0.0073,
                -0.2644,
                -0.457
            ],
            []
        ],
        "modelOut": [
            [
                0.5466,
                0.48,
                0.0405,
                -0.1022,
                0.1396,
                -0.0172,
                -0.2292,
                -0.4737
            ],
            [
                0.5308,
                0.5004,
                0.0444,
                -0.0984,
                0.1384,
                -0.0163,
                -0.2061,
                -0.4794
            ],
            [
                0.4894,
                0.4758,
                -0.0023,
                -0.101,
                0.1808,
                -0.0101,
                -0.1878,
                -0.4583
            ],
            [
                0.7076,
                0.4481,
                0.1227,
                -0.1143,
                0.0327,
                -0.0432,
                -0.3419,
                -0.5145
            ],
            []
        ],
        "log_probs": [
            [
                -1.6325,
                -1.6991,
                -2.1386,
                -2.2812,
                -2.0395,
                -2.1963,
                -2.4083,
                -2.6528
            ],
            [
                -1.6515,
                -1.6819,
                -2.1379,
                -2.2807,
                -2.0439,
                -2.1986,
                -2.3884,
                -2.6617
            ],
            [
                -1.6844,
                -1.698,
                -2.1761,
                -2.2748,
                -1.993,
                -2.1839,
                -2.3616,
                -2.6321
            ],
            [
                -1.4803,
                -1.7398,
                -2.0652,
                -2.3022,
                -2.1551,
                -2.231,
                -2.5298,
                -2.7024
            ],
            []
        ],
        "y_pred": [
            [
                -1.6325,
                -1.6991,
                -2.1386,
                -2.2812,
                -2.0395,
                -2.1963,
                -2.4083,
                -2.6528
            ],
            [
                -1.6515,
                -1.6819,
                -2.1379,
                -2.2807,
                -2.0439,
                -2.1986,
                -2.3884,
                -2.6617
            ],
            [
                -1.6844,
                -1.698,
                -2.1761,
                -2.2748,
                -1.993,
                -2.1839,
                -2.3616,
                -2.6321
            ],
            [
                -1.4803,
                -1.7398,
                -2.0652,
                -2.3022,
                -2.1551,
                -2.231,
                -2.5298,
                -2.7024
            ],
            []
        ],
        "loss": [
            [
                2.1246
            ]
        ]
    },
    "epoch3": {
        "rightWeight": [
            [
                0.0759,
                0.024,
                -0.0512
            ],
            [
                -0.016,
                -0.0961,
                0.1506
            ],
            [
                -0.0568,
                -0.0812,
                0.1286
            ],
            [
                0.0964,
                0.0162,
                -0.1008
            ]
        ],
        "leftWeight": [
            [
                0.4196,
                -0.4445,
                0.5566
            ],
            [
                -0.4655,
                -0.2537,
                -0.5676
            ],
            [
                -0.1915,
                -0.5164,
                -0.0838
            ],
            [
                -0.1339,
                -0.0344,
                -0.1262
            ],
            [
                -0.3815,
                0.3975,
                -0.1934
            ],
            [
                -0.2143,
                0.0379,
                -0.114
            ],
            [
                0.0499,
                0.2941,
                -0.4847
            ],
            [
                -0.2866,
                0.1646,
                -0.0272
            ]
        ],
        "leftBias": [
            [
                0.5518,
                0.4918,
                0.0632,
                -0.0971,
                0.1504,
                -0.0068,
                -0.2654,
                -0.458
            ],
            []
        ],
        "modelOut": [
            [
                0.5445,
                0.4795,
                0.0406,
                -0.1016,
                0.1409,
                -0.0163,
                -0.2297,
                -0.4744
            ],
            [
                0.6716,
                0.4382,
                0.1033,
                -0.1106,
                0.0892,
                -0.0242,
                -0.3674,
                -0.4733
            ],
            [
                0.6356,
                0.4659,
                0.1053,
                -0.1029,
                0.115,
                -0.0124,
                -0.3544,
                -0.4585
            ],
            [
                0.529,
                0.5,
                0.0449,
                -0.0978,
                0.1396,
                -0.0154,
                -0.2069,
                -0.4802
            ],
            []
        ],
        "log_probs": [
            [
                -1.6343,
                -1.6993,
                -2.1382,
                -2.2804,
                -2.0379,
                -2.1952,
                -2.4085,
                -2.6532
            ],
            [
                -1.514,
                -1.7474,
                -2.0823,
                -2.2963,
                -2.0964,
                -2.2098,
                -2.5531,
                -2.6589
            ],
            [
                -1.5547,
                -1.7244,
                -2.0851,
                -2.2932,
                -2.0754,
                -2.2027,
                -2.5447,
                -2.6489
            ],
            [
                -1.6531,
                -1.6821,
                -2.1372,
                -2.2799,
                -2.0425,
                -2.1975,
                -2.389,
                -2.6623
            ],
            []
        ],
        "y_pred": [
            [
                -1.6343,
                -1.6993,
                -2.1382,
                -2.2804,
                -2.0379,
                -2.1952,
                -2.4085,
                -2.6532
            ],
            [
                -1.514,
                -1.7474,
                -2.0823,
                -2.2963,
                -2.0964,
                -2.2098,
                -2.5531,
                -2.6589
            ],
            [
                -1.5547,
                -1.7244,
                -2.0851,
                -2.2932,
                -2.0754,
                -2.2027,
                -2.5447,
                -2.6489
            ],
            [
                -1.6531,
                -1.6821,
                -2.1372,
                -2.2799,
                -2.0425,
                -2.1975,
                -2.389,
                -2.6623
            ],
            []
        ],
        "loss": [
            [
                2.296
            ]
        ]
    }
}